{
  "model_params": {
    "objective": "reg:squarederror",
    "base_score": null,
    "booster": null,
    "callbacks": null,
    "colsample_bylevel": null,
    "colsample_bynode": null,
    "colsample_bytree": null,
    "device": null,
    "early_stopping_rounds": null,
    "enable_categorical": false,
    "eval_metric": null,
    "feature_types": null,
    "gamma": null,
    "grow_policy": null,
    "importance_type": null,
    "interaction_constraints": null,
    "learning_rate": null,
    "max_bin": null,
    "max_cat_threshold": null,
    "max_cat_to_onehot": null,
    "max_delta_step": null,
    "max_depth": 3,
    "max_leaves": null,
    "min_child_weight": null,
    "missing": NaN,
    "monotone_constraints": null,
    "multi_strategy": null,
    "n_estimators": 5,
    "n_jobs": null,
    "num_parallel_tree": null,
    "random_state": null,
    "reg_alpha": null,
    "reg_lambda": null,
    "sampling_method": null,
    "scale_pos_weight": null,
    "subsample": null,
    "tree_method": null,
    "validate_parameters": null,
    "verbosity": null,
    "type": "xgboost.sklearn.XGBRegressor"
  },
  "fitted_state": {
    "__format__": {
      "library": "xgboost",
      "format": "native-json",
      "schema_version": 1
    },
    "model_json": {
      "learner": {
        "attributes": {},
        "feature_names": [],
        "feature_types": [],
        "gradient_booster": {
          "model": {
            "gbtree_model_param": {
              "num_parallel_tree": "1",
              "num_trees": "5"
            },
            "iteration_indptr": [
              0,
              1,
              2,
              3,
              4,
              5
            ],
            "tree_info": [
              0,
              0,
              0,
              0,
              0
            ],
            "trees": [
              {
                "base_weights": [
                  6.6687296e-09,
                  -1.3911575,
                  1.5338403,
                  -2.5144432,
                  -0.82058567,
                  0.9092062,
                  3.2543585,
                  -0.85195464,
                  -0.40822285,
                  -0.29783598,
                  0.16407517,
                  0.0001494661,
                  0.38958865,
                  0.3894468,
                  1.074342
                ],
                "categories": [],
                "categories_nodes": [],
                "categories_segments": [],
                "categories_sizes": [],
                "default_left": [
                  0,
                  0,
                  0,
                  0,
                  0,
                  0,
                  0,
                  0,
                  0,
                  0,
                  0,
                  0,
                  0,
                  0,
                  0
                ],
                "id": 0,
                "left_children": [
                  1,
                  3,
                  5,
                  7,
                  9,
                  11,
                  13,
                  -1,
                  -1,
                  -1,
                  -1,
                  -1,
                  -1,
                  -1,
                  -1
                ],
                "loss_changes": [
                  174.97272,
                  25.496025,
                  38.954193,
                  1.3915863,
                  7.6075306,
                  10.615498,
                  1.7436295,
                  0.0,
                  0.0,
                  0.0,
                  0.0,
                  0.0,
                  0.0,
                  0.0,
                  0.0
                ],
                "parents": [
                  2147483647,
                  0,
                  0,
                  1,
                  1,
                  2,
                  2,
                  3,
                  3,
                  4,
                  4,
                  5,
                  5,
                  6,
                  6
                ],
                "right_children": [
                  2,
                  4,
                  6,
                  8,
                  10,
                  12,
                  14,
                  -1,
                  -1,
                  -1,
                  -1,
                  -1,
                  -1,
                  -1,
                  -1
                ],
                "split_conditions": [
                  0.012494119,
                  -0.90292716,
                  1.3060018,
                  0.17927563,
                  0.9827395,
                  -0.4623518,
                  -0.8401565,
                  -0.85195464,
                  -0.40822285,
                  -0.29783598,
                  0.16407517,
                  0.0001494661,
                  0.38958865,
                  0.3894468,
                  1.074342
                ],
                "split_indices": [
                  0,
                  0,
                  0,
                  1,
                  1,
                  1,
                  1,
                  0,
                  0,
                  0,
                  0,
                  0,
                  0,
                  0,
                  0
                ],
                "split_type": [
                  0,
                  0,
                  0,
                  0,
                  0,
                  0,
                  0,
                  0,
                  0,
                  0,
                  0,
                  0,
                  0,
                  0,
                  0
                ],
                "sum_hessian": [
                  80.0,
                  42.0,
                  38.0,
                  13.0,
                  29.0,
                  29.0,
                  9.0,
                  9.0,
                  4.0,
                  26.0,
                  3.0,
                  9.0,
                  20.0,
                  2.0,
                  7.0
                ],
                "tree_param": {
                  "num_deleted": "0",
                  "num_feature": "3",
                  "num_nodes": "15",
                  "size_leaf_vector": "1"
                }
              },
              {
                "base_weights": [
                  0.005673912,
                  -1.1406544,
                  0.9955559,
                  -2.045709,
                  -0.74435973,
                  0.52876097,
                  2.3478713,
                  -0.64018303,
                  -0.17450467,
                  -0.2777676,
                  0.02267214,
                  0.02765512,
                  0.3042447,
                  0.46138152,
                  0.903661
                ],
                "categories": [],
                "categories_nodes": [],
                "categories_segments": [],
                "categories_sizes": [],
                "default_left": [
                  0,
                  0,
                  0,
                  0,
                  0,
                  0,
                  0,
                  0,
                  0,
                  0,
                  0,
                  0,
                  0,
                  0,
                  0
                ],
                "id": 1,
                "left_children": [
                  1,
                  3,
                  5,
                  7,
                  9,
                  11,
                  13,
                  -1,
                  -1,
                  -1,
                  -1,
                  -1,
                  -1,
                  -1,
                  -1
                ],
                "loss_changes": [
                  93.0487,
                  12.106655,
                  26.533707,
                  0.17967606,
                  4.2376175,
                  7.111429,
                  1.2861252,
                  0.0,
                  0.0,
                  0.0,
                  0.0,
                  0.0,
                  0.0,
                  0.0,
                  0.0
                ],
                "parents": [
                  2147483647,
                  0,
                  0,
                  1,
                  1,
                  2,
                  2,
                  3,
                  3,
                  4,
                  4,
                  5,
                  5,
                  6,
                  6
                ],
                "right_children": [
                  2,
                  4,
                  6,
                  8,
                  10,
                  12,
                  14,
                  -1,
                  -1,
                  -1,
                  -1,
                  -1,
                  -1,
                  -1,
                  -1
                ],
                "split_conditions": [
                  -0.15663789,
                  -0.92657596,
                  1.1062887,
                  0.315605,
                  0.7112266,
                  -0.098485485,
                  1.6509279,
                  -0.64018303,
                  -0.17450467,
                  -0.2777676,
                  0.02267214,
                  0.02765512,
                  0.3042447,
                  0.46138152,
                  0.903661
                ],
                "split_indices": [
                  0,
                  0,
                  0,
                  1,
                  1,
                  1,
                  0,
                  0,
                  0,
                  0,
                  0,
                  0,
                  0,
                  0,
                  0
                ],
                "split_type": [
                  0,
                  0,
                  0,
                  0,
                  0,
                  0,
                  0,
                  0,
                  0,
                  0,
                  0,
                  0,
                  0,
                  0,
                  0
                ],
                "sum_hessian": [
                  80.0,
                  37.0,
                  43.0,
                  10.0,
                  27.0,
                  33.0,
                  10.0,
                  9.0,
                  1.0,
                  22.0,
                  5.0,
                  18.0,
                  15.0,
                  6.0,
                  4.0
                ],
                "tree_param": {
                  "num_deleted": "0",
                  "num_feature": "3",
                  "num_nodes": "15",
                  "size_leaf_vector": "1"
                }
              },
              {
                "base_weights": [
                  0.011714443,
                  -0.60985804,
                  1.0887163,
                  -1.009565,
                  -0.018913845,
                  0.815966,
                  2.2892742,
                  -0.4518176,
                  -0.2104267,
                  -0.0989085,
                  0.20824352,
                  0.121726796,
                  0.32692093,
                  0.17050852,
                  0.7732236
                ],
                "categories": [],
                "categories_nodes": [],
                "categories_segments": [],
                "categories_sizes": [],
                "default_left": [
                  0,
                  0,
                  0,
                  0,
                  0,
                  0,
                  0,
                  0,
                  0,
                  0,
                  0,
                  0,
                  0,
                  0,
                  0
                ],
                "id": 2,
                "left_children": [
                  1,
                  3,
                  5,
                  7,
                  9,
                  11,
                  13,
                  -1,
                  -1,
                  -1,
                  -1,
                  -1,
                  -1,
                  -1,
                  -1
                ],
                "loss_changes": [
                  54.888172,
                  12.263538,
                  7.9556007,
                  3.6863365,
                  5.1041718,
                  2.4777203,
                  1.0143967,
                  0.0,
                  0.0,
                  0.0,
                  0.0,
                  0.0,
                  0.0,
                  0.0,
                  0.0
                ],
                "parents": [
                  2147483647,
                  0,
                  0,
                  1,
                  1,
                  2,
                  2,
                  3,
                  3,
                  4,
                  4,
                  5,
                  5,
                  6,
                  6
                ],
                "right_children": [
                  2,
                  4,
                  6,
                  8,
                  10,
                  12,
                  14,
                  -1,
                  -1,
                  -1,
                  -1,
                  -1,
                  -1,
                  -1,
                  -1
                ],
                "split_conditions": [
                  0.21868859,
                  -0.38318732,
                  1.6509279,
                  -0.92657596,
                  0.48697248,
                  -0.28738335,
                  -0.65414643,
                  -0.4518176,
                  -0.2104267,
                  -0.0989085,
                  0.20824352,
                  0.121726796,
                  0.32692093,
                  0.17050852,
                  0.7732236
                ],
                "split_indices": [
                  0,
                  0,
                  0,
                  0,
                  1,
                  1,
                  1,
                  0,
                  0,
                  0,
                  0,
                  0,
                  0,
                  0,
                  0
                ],
                "split_type": [
                  0,
                  0,
                  0,
                  0,
                  0,
                  0,
                  0,
                  0,
                  0,
                  0,
                  0,
                  0,
                  0,
                  0,
                  0
                ],
                "sum_hessian": [
                  80.0,
                  51.0,
                  29.0,
                  30.0,
                  21.0,
                  25.0,
                  4.0,
                  10.0,
                  20.0,
                  15.0,
                  6.0,
                  11.0,
                  14.0,
                  1.0,
                  3.0
                ],
                "tree_param": {
                  "num_deleted": "0",
                  "num_feature": "3",
                  "num_nodes": "15",
                  "size_leaf_vector": "1"
                }
              },
              {
                "base_weights": [
                  0.018563941,
                  -0.38002938,
                  0.92661417,
                  -0.72805816,
                  0.033634424,
                  0.64172375,
                  0.5813493,
                  -0.2849093,
                  -0.10443573,
                  -0.06456742,
                  0.16657998,
                  0.009688892,
                  0.22245023
                ],
                "categories": [],
                "categories_nodes": [],
                "categories_segments": [],
                "categories_sizes": [],
                "default_left": [
                  0,
                  0,
                  0,
                  0,
                  0,
                  0,
                  0,
                  0,
                  0,
                  0,
                  0,
                  0,
                  0
                ],
                "id": 3,
                "left_children": [
                  1,
                  3,
                  5,
                  7,
                  9,
                  11,
                  -1,
                  -1,
                  -1,
                  -1,
                  -1,
                  -1,
                  -1
                ],
                "loss_changes": [
                  29.6695,
                  8.230603,
                  5.958597,
                  2.2798862,
                  3.624456,
                  1.2529955,
                  0.0,
                  0.0,
                  0.0,
                  0.0,
                  0.0,
                  0.0,
                  0.0
                ],
                "parents": [
                  2147483647,
                  0,
                  0,
                  1,
                  1,
                  2,
                  2,
                  3,
                  3,
                  4,
                  4,
                  5,
                  5
                ],
                "right_children": [
                  2,
                  4,
                  6,
                  8,
                  10,
                  12,
                  -1,
                  -1,
                  -1,
                  -1,
                  -1,
                  -1,
                  -1
                ],
                "split_conditions": [
                  0.4460722,
                  -0.38318732,
                  0.83511126,
                  0.17927563,
                  0.48697248,
                  -1.3263928,
                  0.5813493,
                  -0.2849093,
                  -0.10443573,
                  -0.06456742,
                  0.16657998,
                  0.009688892,
                  0.22245023
                ],
                "split_indices": [
                  0,
                  0,
                  1,
                  1,
                  1,
                  1,
                  0,
                  0,
                  0,
                  0,
                  0,
                  0,
                  0
                ],
                "split_type": [
                  0,
                  0,
                  0,
                  0,
                  0,
                  0,
                  0,
                  0,
                  0,
                  0,
                  0,
                  0,
                  0
                ],
                "sum_hessian": [
                  80.0,
                  56.0,
                  24.0,
                  30.0,
                  26.0,
                  20.0,
                  4.0,
                  18.0,
                  12.0,
                  18.0,
                  8.0,
                  3.0,
                  17.0
                ],
                "tree_param": {
                  "num_deleted": "0",
                  "num_feature": "3",
                  "num_nodes": "13",
                  "size_leaf_vector": "1"
                }
              },
              {
                "base_weights": [
                  0.019490507,
                  -0.30741552,
                  0.6162673,
                  -0.885527,
                  -0.15237732,
                  0.39839178,
                  1.3850583,
                  -0.322497,
                  -0.085565746,
                  -0.014353966,
                  -0.18111558,
                  0.052399173,
                  0.19407569,
                  0.22224484,
                  0.53470856
                ],
                "categories": [],
                "categories_nodes": [],
                "categories_segments": [],
                "categories_sizes": [],
                "default_left": [
                  0,
                  0,
                  0,
                  0,
                  0,
                  0,
                  0,
                  0,
                  0,
                  0,
                  0,
                  0,
                  0,
                  0,
                  0
                ],
                "id": 4,
                "left_children": [
                  1,
                  3,
                  5,
                  7,
                  9,
                  11,
                  13,
                  -1,
                  -1,
                  -1,
                  -1,
                  -1,
                  -1,
                  -1,
                  -1
                ],
                "loss_changes": [
                  15.9917345,
                  4.615422,
                  4.305725,
                  0.9444895,
                  1.9998133,
                  1.2214658,
                  0.21535683,
                  0.0,
                  0.0,
                  0.0,
                  0.0,
                  0.0,
                  0.0,
                  0.0,
                  0.0
                ],
                "parents": [
                  2147483647,
                  0,
                  0,
                  1,
                  1,
                  2,
                  2,
                  3,
                  3,
                  4,
                  4,
                  5,
                  5,
                  6,
                  6
                ],
                "right_children": [
                  2,
                  4,
                  6,
                  8,
                  10,
                  12,
                  14,
                  -1,
                  -1,
                  -1,
                  -1,
                  -1,
                  -1,
                  -1,
                  -1
                ],
                "split_conditions": [
                  0.22822833,
                  -0.92657596,
                  0.83511126,
                  0.17927563,
                  0.54315424,
                  0.8784503,
                  1.4074819,
                  -0.322497,
                  -0.085565746,
                  -0.014353966,
                  -0.18111558,
                  0.052399173,
                  0.19407569,
                  0.22224484,
                  0.53470856
                ],
                "split_indices": [
                  0,
                  0,
                  1,
                  1,
                  2,
                  0,
                  0,
                  0,
                  0,
                  0,
                  0,
                  0,
                  0,
                  0,
                  0
                ],
                "split_type": [
                  0,
                  0,
                  0,
                  0,
                  0,
                  0,
                  0,
                  0,
                  0,
                  0,
                  0,
                  0,
                  0,
                  0,
                  0
                ],
                "sum_hessian": [
                  80.0,
                  52.0,
                  28.0,
                  10.0,
                  42.0,
                  23.0,
                  5.0,
                  7.0,
                  3.0,
                  35.0,
                  7.0,
                  13.0,
                  10.0,
                  3.0,
                  2.0
                ],
                "tree_param": {
                  "num_deleted": "0",
                  "num_feature": "3",
                  "num_nodes": "15",
                  "size_leaf_vector": "1"
                }
              }
            ]
          },
          "name": "gbtree"
        },
        "learner_model_param": {
          "base_score": "-9.841837E-2",
          "boost_from_average": "1",
          "num_class": "0",
          "num_feature": "3",
          "num_target": "1"
        },
        "objective": {
          "name": "reg:squarederror",
          "reg_loss_param": {
            "scale_pos_weight": "1"
          }
        }
      },
      "version": [
        2,
        1,
        4
      ]
    }
  },
  "skeights_version": {
    "skeights": "0.2.1",
    "sklearn": "1.5.2",
    "xgboost": "2.1.4"
  }
}